digraph Tree {
node [shape=box] ;
0 [label="X[17] <= -1.835\nentropy = 1.0\nsamples = 659\nvalue = [327, 332]"] ;
1 [label="entropy = 0.0\nsamples = 244\nvalue = [0, 244]"] ;
0 -> 1 [labeldistance=2.5, labelangle=45, headlabel="True"] ;
2 [label="X[17] <= 1.96\nentropy = 0.745\nsamples = 415\nvalue = [327, 88]"] ;
0 -> 2 [labeldistance=2.5, labelangle=-45, headlabel="False"] ;
3 [label="X[14] <= -2.342\nentropy = 0.624\nsamples = 385\nvalue = [325, 60]"] ;
2 -> 3 ;
4 [label="entropy = 0.0\nsamples = 26\nvalue = [0, 26]"] ;
3 -> 4 ;
5 [label="X[14] <= -0.76\nentropy = 0.452\nsamples = 359\nvalue = [325, 34]"] ;
3 -> 5 ;
6 [label="X[11] <= -0.808\nentropy = 0.876\nsamples = 44\nvalue = [31, 13]"] ;
5 -> 6 ;
7 [label="entropy = 0.0\nsamples = 9\nvalue = [9, 0]"] ;
6 -> 7 ;
8 [label="X[13] <= -0.165\nentropy = 0.952\nsamples = 35\nvalue = [22, 13]"] ;
6 -> 8 ;
9 [label="X[9] <= -0.181\nentropy = 0.991\nsamples = 18\nvalue = [8, 10]"] ;
8 -> 9 ;
10 [label="entropy = 0.0\nsamples = 7\nvalue = [0, 7]"] ;
9 -> 10 ;
11 [label="X[15] <= 1.455\nentropy = 0.845\nsamples = 11\nvalue = [8, 3]"] ;
9 -> 11 ;
12 [label="X[9] <= -0.092\nentropy = 0.503\nsamples = 9\nvalue = [8, 1]"] ;
11 -> 12 ;
13 [label="X[2] <= 0.401\nentropy = 1.0\nsamples = 2\nvalue = [1, 1]"] ;
12 -> 13 ;
14 [label="entropy = 0.0\nsamples = 1\nvalue = [0, 1]"] ;
13 -> 14 ;
15 [label="entropy = 0.0\nsamples = 1\nvalue = [1, 0]"] ;
13 -> 15 ;
16 [label="entropy = 0.0\nsamples = 7\nvalue = [7, 0]"] ;
12 -> 16 ;
17 [label="entropy = 0.0\nsamples = 2\nvalue = [0, 2]"] ;
11 -> 17 ;
18 [label="X[12] <= 0.483\nentropy = 0.672\nsamples = 17\nvalue = [14, 3]"] ;
8 -> 18 ;
19 [label="entropy = 0.0\nsamples = 8\nvalue = [8, 0]"] ;
18 -> 19 ;
20 [label="X[12] <= 0.735\nentropy = 0.918\nsamples = 9\nvalue = [6, 3]"] ;
18 -> 20 ;
21 [label="entropy = 0.0\nsamples = 2\nvalue = [0, 2]"] ;
20 -> 21 ;
22 [label="X[17] <= -0.228\nentropy = 0.592\nsamples = 7\nvalue = [6, 1]"] ;
20 -> 22 ;
23 [label="entropy = 0.0\nsamples = 1\nvalue = [0, 1]"] ;
22 -> 23 ;
24 [label="entropy = 0.0\nsamples = 6\nvalue = [6, 0]"] ;
22 -> 24 ;
25 [label="X[20] <= 0.816\nentropy = 0.353\nsamples = 315\nvalue = [294, 21]"] ;
5 -> 25 ;
26 [label="X[19] <= -1.824\nentropy = 0.262\nsamples = 293\nvalue = [280, 13]"] ;
25 -> 26 ;
27 [label="X[7] <= 1.005\nentropy = 0.9\nsamples = 19\nvalue = [13, 6]"] ;
26 -> 27 ;
28 [label="X[3] <= 0.499\nentropy = 0.787\nsamples = 17\nvalue = [13, 4]"] ;
27 -> 28 ;
29 [label="X[11] <= 0.206\nentropy = 0.971\nsamples = 10\nvalue = [6, 4]"] ;
28 -> 29 ;
30 [label="X[21] <= -0.117\nentropy = 0.811\nsamples = 8\nvalue = [6, 2]"] ;
29 -> 30 ;
31 [label="X[18] <= -0.413\nentropy = 0.918\nsamples = 3\nvalue = [1, 2]"] ;
30 -> 31 ;
32 [label="entropy = 0.0\nsamples = 1\nvalue = [1, 0]"] ;
31 -> 32 ;
33 [label="entropy = 0.0\nsamples = 2\nvalue = [0, 2]"] ;
31 -> 33 ;
34 [label="entropy = 0.0\nsamples = 5\nvalue = [5, 0]"] ;
30 -> 34 ;
35 [label="entropy = 0.0\nsamples = 2\nvalue = [0, 2]"] ;
29 -> 35 ;
36 [label="entropy = 0.0\nsamples = 7\nvalue = [7, 0]"] ;
28 -> 36 ;
37 [label="entropy = 0.0\nsamples = 2\nvalue = [0, 2]"] ;
27 -> 37 ;
38 [label="X[20] <= -1.306\nentropy = 0.172\nsamples = 274\nvalue = [267, 7]"] ;
26 -> 38 ;
39 [label="X[22] <= 0.218\nentropy = 0.918\nsamples = 9\nvalue = [6, 3]"] ;
38 -> 39 ;
40 [label="entropy = 0.0\nsamples = 5\nvalue = [5, 0]"] ;
39 -> 40 ;
41 [label="X[21] <= -0.803\nentropy = 0.811\nsamples = 4\nvalue = [1, 3]"] ;
39 -> 41 ;
42 [label="entropy = 0.0\nsamples = 1\nvalue = [1, 0]"] ;
41 -> 42 ;
43 [label="entropy = 0.0\nsamples = 3\nvalue = [0, 3]"] ;
41 -> 43 ;
44 [label="X[7] <= 1.55\nentropy = 0.113\nsamples = 265\nvalue = [261, 4]"] ;
38 -> 44 ;
45 [label="X[28] <= -1.074\nentropy = 0.066\nsamples = 257\nvalue = [255, 2]"] ;
44 -> 45 ;
46 [label="X[26] <= -0.28\nentropy = 0.722\nsamples = 5\nvalue = [4, 1]"] ;
45 -> 46 ;
47 [label="entropy = 0.0\nsamples = 1\nvalue = [0, 1]"] ;
46 -> 47 ;
48 [label="entropy = 0.0\nsamples = 4\nvalue = [4, 0]"] ;
46 -> 48 ;
49 [label="X[17] <= -1.014\nentropy = 0.037\nsamples = 252\nvalue = [251, 1]"] ;
45 -> 49 ;
50 [label="X[17] <= -1.023\nentropy = 0.235\nsamples = 26\nvalue = [25, 1]"] ;
49 -> 50 ;
51 [label="entropy = 0.0\nsamples = 25\nvalue = [25, 0]"] ;
50 -> 51 ;
52 [label="entropy = 0.0\nsamples = 1\nvalue = [0, 1]"] ;
50 -> 52 ;
53 [label="entropy = 0.0\nsamples = 226\nvalue = [226, 0]"] ;
49 -> 53 ;
54 [label="X[8] <= -0.35\nentropy = 0.811\nsamples = 8\nvalue = [6, 2]"] ;
44 -> 54 ;
55 [label="X[13] <= -0.258\nentropy = 1.0\nsamples = 4\nvalue = [2, 2]"] ;
54 -> 55 ;
56 [label="entropy = 0.0\nsamples = 1\nvalue = [0, 1]"] ;
55 -> 56 ;
57 [label="X[17] <= -0.045\nentropy = 0.918\nsamples = 3\nvalue = [2, 1]"] ;
55 -> 57 ;
58 [label="entropy = 0.0\nsamples = 2\nvalue = [2, 0]"] ;
57 -> 58 ;
59 [label="entropy = 0.0\nsamples = 1\nvalue = [0, 1]"] ;
57 -> 59 ;
60 [label="entropy = 0.0\nsamples = 4\nvalue = [4, 0]"] ;
54 -> 60 ;
61 [label="X[29] <= -0.35\nentropy = 0.946\nsamples = 22\nvalue = [14, 8]"] ;
25 -> 61 ;
62 [label="entropy = 0.0\nsamples = 3\nvalue = [0, 3]"] ;
61 -> 62 ;
63 [label="X[27] <= -0.131\nentropy = 0.831\nsamples = 19\nvalue = [14, 5]"] ;
61 -> 63 ;
64 [label="X[4] <= 1.586\nentropy = 0.991\nsamples = 9\nvalue = [4, 5]"] ;
63 -> 64 ;
65 [label="X[15] <= -0.562\nentropy = 0.65\nsamples = 6\nvalue = [1, 5]"] ;
64 -> 65 ;
66 [label="entropy = 0.0\nsamples = 1\nvalue = [1, 0]"] ;
65 -> 66 ;
67 [label="entropy = 0.0\nsamples = 5\nvalue = [0, 5]"] ;
65 -> 67 ;
68 [label="entropy = 0.0\nsamples = 3\nvalue = [3, 0]"] ;
64 -> 68 ;
69 [label="entropy = 0.0\nsamples = 10\nvalue = [10, 0]"] ;
63 -> 69 ;
70 [label="X[14] <= 0.002\nentropy = 0.353\nsamples = 30\nvalue = [2, 28]"] ;
2 -> 70 ;
71 [label="entropy = 0.0\nsamples = 28\nvalue = [0, 28]"] ;
70 -> 71 ;
72 [label="entropy = 0.0\nsamples = 2\nvalue = [2, 0]"] ;
70 -> 72 ;
}