digraph Tree {
node [shape=box] ;
0 [label="X[14] <= -1.844\ngini = 0.5\nsamples = 659\nvalue = [327, 332]"] ;
1 [label="X[4] <= -0.371\ngini = 0.02\nsamples = 292\nvalue = [3, 289]"] ;
0 -> 1 [labeldistance=2.5, labelangle=45, headlabel="True"] ;
2 [label="gini = 0.0\nsamples = 2\nvalue = [2, 0]"] ;
1 -> 2 ;
3 [label="X[1] <= 1.043\ngini = 0.007\nsamples = 290\nvalue = [1, 289]"] ;
1 -> 3 ;
4 [label="gini = 0.0\nsamples = 289\nvalue = [0, 289]"] ;
3 -> 4 ;
5 [label="gini = 0.0\nsamples = 1\nvalue = [1, 0]"] ;
3 -> 5 ;
6 [label="X[4] <= 1.171\ngini = 0.207\nsamples = 367\nvalue = [324, 43]"] ;
0 -> 6 [labeldistance=2.5, labelangle=-45, headlabel="False"] ;
7 [label="X[14] <= -0.837\ngini = 0.121\nsamples = 310\nvalue = [290, 20]"] ;
6 -> 7 ;
8 [label="X[0] <= -0.601\ngini = 0.42\nsamples = 30\nvalue = [21, 9]"] ;
7 -> 8 ;
9 [label="X[25] <= 0.983\ngini = 0.463\nsamples = 11\nvalue = [4, 7]"] ;
8 -> 9 ;
10 [label="gini = 0.0\nsamples = 6\nvalue = [0, 6]"] ;
9 -> 10 ;
11 [label="X[4] <= 0.742\ngini = 0.32\nsamples = 5\nvalue = [4, 1]"] ;
9 -> 11 ;
12 [label="gini = 0.0\nsamples = 4\nvalue = [4, 0]"] ;
11 -> 12 ;
13 [label="gini = 0.0\nsamples = 1\nvalue = [0, 1]"] ;
11 -> 13 ;
14 [label="X[20] <= -0.231\ngini = 0.188\nsamples = 19\nvalue = [17, 2]"] ;
8 -> 14 ;
15 [label="X[1] <= -0.693\ngini = 0.444\nsamples = 3\nvalue = [1, 2]"] ;
14 -> 15 ;
16 [label="gini = 0.0\nsamples = 1\nvalue = [1, 0]"] ;
15 -> 16 ;
17 [label="gini = 0.0\nsamples = 2\nvalue = [0, 2]"] ;
15 -> 17 ;
18 [label="gini = 0.0\nsamples = 16\nvalue = [16, 0]"] ;
14 -> 18 ;
19 [label="X[29] <= 0.782\ngini = 0.075\nsamples = 280\nvalue = [269, 11]"] ;
7 -> 19 ;
20 [label="X[22] <= 2.845\ngini = 0.03\nsamples = 259\nvalue = [255, 4]"] ;
19 -> 20 ;
21 [label="X[19] <= 2.719\ngini = 0.023\nsamples = 258\nvalue = [255, 3]"] ;
20 -> 21 ;
22 [label="X[3] <= 1.433\ngini = 0.016\nsamples = 256\nvalue = [254, 2]"] ;
21 -> 22 ;
23 [label="X[13] <= 1.578\ngini = 0.008\nsamples = 252\nvalue = [251, 1]"] ;
22 -> 23 ;
24 [label="gini = 0.0\nsamples = 233\nvalue = [233, 0]"] ;
23 -> 24 ;
25 [label="X[15] <= 1.034\ngini = 0.1\nsamples = 19\nvalue = [18, 1]"] ;
23 -> 25 ;
26 [label="gini = 0.0\nsamples = 18\nvalue = [18, 0]"] ;
25 -> 26 ;
27 [label="gini = 0.0\nsamples = 1\nvalue = [0, 1]"] ;
25 -> 27 ;
28 [label="X[6] <= 0.578\ngini = 0.375\nsamples = 4\nvalue = [3, 1]"] ;
22 -> 28 ;
29 [label="gini = 0.0\nsamples = 3\nvalue = [3, 0]"] ;
28 -> 29 ;
30 [label="gini = 0.0\nsamples = 1\nvalue = [0, 1]"] ;
28 -> 30 ;
31 [label="X[23] <= -0.334\ngini = 0.5\nsamples = 2\nvalue = [1, 1]"] ;
21 -> 31 ;
32 [label="gini = 0.0\nsamples = 1\nvalue = [1, 0]"] ;
31 -> 32 ;
33 [label="gini = 0.0\nsamples = 1\nvalue = [0, 1]"] ;
31 -> 33 ;
34 [label="gini = 0.0\nsamples = 1\nvalue = [0, 1]"] ;
20 -> 34 ;
35 [label="X[24] <= -0.374\ngini = 0.444\nsamples = 21\nvalue = [14, 7]"] ;
19 -> 35 ;
36 [label="gini = 0.0\nsamples = 4\nvalue = [0, 4]"] ;
35 -> 36 ;
37 [label="X[26] <= -1.275\ngini = 0.291\nsamples = 17\nvalue = [14, 3]"] ;
35 -> 37 ;
38 [label="gini = 0.0\nsamples = 3\nvalue = [0, 3]"] ;
37 -> 38 ;
39 [label="gini = 0.0\nsamples = 14\nvalue = [14, 0]"] ;
37 -> 39 ;
40 [label="X[21] <= -0.476\ngini = 0.481\nsamples = 57\nvalue = [34, 23]"] ;
6 -> 40 ;
41 [label="X[3] <= 1.396\ngini = 0.133\nsamples = 14\nvalue = [1, 13]"] ;
40 -> 41 ;
42 [label="gini = 0.0\nsamples = 13\nvalue = [0, 13]"] ;
41 -> 42 ;
43 [label="gini = 0.0\nsamples = 1\nvalue = [1, 0]"] ;
41 -> 43 ;
44 [label="X[26] <= -0.146\ngini = 0.357\nsamples = 43\nvalue = [33, 10]"] ;
40 -> 44 ;
45 [label="X[6] <= 0.102\ngini = 0.498\nsamples = 15\nvalue = [7, 8]"] ;
44 -> 45 ;
46 [label="gini = 0.0\nsamples = 6\nvalue = [0, 6]"] ;
45 -> 46 ;
47 [label="X[24] <= 0.884\ngini = 0.346\nsamples = 9\nvalue = [7, 2]"] ;
45 -> 47 ;
48 [label="gini = 0.0\nsamples = 7\nvalue = [7, 0]"] ;
47 -> 48 ;
49 [label="gini = 0.0\nsamples = 2\nvalue = [0, 2]"] ;
47 -> 49 ;
50 [label="X[18] <= -0.876\ngini = 0.133\nsamples = 28\nvalue = [26, 2]"] ;
44 -> 50 ;
51 [label="gini = 0.0\nsamples = 1\nvalue = [0, 1]"] ;
50 -> 51 ;
52 [label="X[5] <= 0.991\ngini = 0.071\nsamples = 27\nvalue = [26, 1]"] ;
50 -> 52 ;
53 [label="gini = 0.0\nsamples = 25\nvalue = [25, 0]"] ;
52 -> 53 ;
54 [label="X[29] <= -0.336\ngini = 0.5\nsamples = 2\nvalue = [1, 1]"] ;
52 -> 54 ;
55 [label="gini = 0.0\nsamples = 1\nvalue = [1, 0]"] ;
54 -> 55 ;
56 [label="gini = 0.0\nsamples = 1\nvalue = [0, 1]"] ;
54 -> 56 ;
}